{
  "vocabulary": [
    [
      "doctor",
      0
    ],
    [
      "recommend",
      1
    ],
    [
      "drink",
      2
    ],
    [
      "bleach",
      3
    ],
    [
      "health",
      4
    ],
    [
      "cure",
      5
    ],
    [
      "fake",
      6
    ],
    [
      "studi",
      7
    ],
    [
      "claim",
      8
    ],
    [
      "tech",
      9
    ],
    [
      "compani",
      10
    ],
    [
      "develop",
      11
    ],
    [
      "afford",
      12
    ],
    [
      "prosthet",
      13
    ],
    [
      "limb",
      14
    ],
    [
      "ampute",
      15
    ],
    [
      "research",
      16
    ],
    [
      "new",
      17
    ],
    [
      "method",
      18
    ],
    [
      "clean",
      19
    ],
    [
      "ocean",
      20
    ],
    [
      "plastic",
      21
    ],
    [
      "pollut",
      22
    ],
    [
      "bigfoot",
      23
    ],
    [
      "elect",
      24
    ],
    [
      "mayor",
      25
    ],
    [
      "small",
      26
    ],
    [
      "town",
      27
    ],
    [
      "resid",
      28
    ],
    [
      "celebr",
      29
    ],
    [
      "scientist",
      30
    ],
    [
      "drought",
      31
    ],
    [
      "resist",
      32
    ],
    [
      "crop",
      33
    ],
    [
      "combat",
      34
    ],
    [
      "food",
      35
    ],
    [
      "shortag",
      36
    ],
    [
      "earth",
      37
    ],
    [
      "flat",
      38
    ],
    [
      "ignor",
      39
    ],
    [
      "satellit",
      40
    ],
    [
      "evid",
      41
    ],
    [
      "local",
      42
    ],
    [
      "commun",
      43
    ],
    [
      "garden",
      44
    ],
    [
      "provid",
      45
    ],
    [
      "fresh",
      46
    ],
    [
      "produc",
      47
    ],
    [
      "famili",
      48
    ],
    [
      "need",
      49
    ],
    [
      "eat",
      50
    ],
    [
      "chocol",
      51
    ],
    [
      "everi",
      52
    ],
    [
      "dai",
      53
    ],
    [
      "make",
      54
    ],
    [
      "lose",
      55
    ],
    [
      "pound",
      56
    ],
    [
      "on",
      57
    ],
    [
      "week",
      58
    ],
    [
      "alien",
      59
    ],
    [
      "land",
      60
    ],
    [
      "york",
      61
    ],
    [
      "citi",
      62
    ],
    [
      "last",
      63
    ],
    [
      "night",
      64
    ],
    [
      "govern",
      65
    ],
    [
      "cover",
      66
    ],
    [
      "medic",
      67
    ],
    [
      "breakthrough",
      68
    ],
    [
      "treatment",
      69
    ],
    [
      "successfulli",
      70
    ],
    [
      "revers",
      71
    ],
    [
      "diabet",
      72
    ],
    [
      "vaccin",
      73
    ],
    [
      "show",
      74
    ],
    [
      "effect",
      75
    ],
    [
      "prevent",
      76
    ],
    [
      "ill",
      77
    ],
    [
      "prove",
      78
    ],
    [
      "human",
      79
    ],
    [
      "photosynthes",
      80
    ],
    [
      "plant",
      81
    ],
    [
      "discov",
      82
    ],
    [
      "graviti",
      83
    ],
    [
      "option",
      84
    ],
    [
      "turn",
      85
    ],
    [
      "off",
      86
    ],
    [
      "econom",
      87
    ],
    [
      "report",
      88
    ],
    [
      "unemploy",
      89
    ],
    [
      "lowest",
      90
    ],
    [
      "rate",
      91
    ],
    [
      "year",
      92
    ],
    [
      "school",
      93
    ],
    [
      "district",
      94
    ],
    [
      "implement",
      95
    ],
    [
      "success",
      96
    ],
    [
      "mental",
      97
    ],
    [
      "program",
      98
    ],
    [
      "presid",
      99
    ],
    [
      "announc",
      100
    ],
    [
      "educ",
      101
    ],
    [
      "reform",
      102
    ],
    [
      "bill",
      103
    ],
    [
      "support",
      104
    ],
    [
      "student",
      105
    ],
    [
      "break",
      106
    ],
    [
      "time",
      107
    ],
    [
      "travel",
      108
    ],
    [
      "invent",
      109
    ],
    [
      "teenag",
      110
    ],
    [
      "garag",
      111
    ],
    [
      "hospit",
      112
    ],
    [
      "rare",
      113
    ],
    [
      "diseas",
      114
    ],
    [
      "spacecraft",
      115
    ],
    [
      "found",
      116
    ],
    [
      "desert",
      117
    ],
    [
      "deni",
      118
    ],
    [
      "everyth",
      119
    ],
    [
      "moon",
      120
    ],
    [
      "actual",
      121
    ],
    [
      "made",
      122
    ],
    [
      "chees",
      123
    ],
    [
      "miracl",
      124
    ],
    [
      "pill",
      125
    ],
    [
      "instantli",
      126
    ],
    [
      "hate",
      127
    ],
    [
      "cancer",
      128
    ],
    [
      "clinic",
      129
    ],
    [
      "trial",
      130
    ],
    [
      "creat",
      131
    ],
    [
      "biodegrad",
      132
    ],
    [
      "altern",
      133
    ],
    [
      "ghost",
      134
    ],
    [
      "haunt",
      135
    ],
    [
      "white",
      136
    ],
    [
      "hous",
      137
    ],
    [
      "staff",
      138
    ],
    [
      "member",
      139
    ],
    [
      "reveal",
      140
    ],
    [
      "spooki",
      141
    ],
    [
      "encount",
      142
    ],
    [
      "conspiraci",
      143
    ],
    [
      "theori",
      144
    ],
    [
      "bird",
      145
    ],
    [
      "drone",
      146
    ],
    [
      "chariti",
      147
    ],
    [
      "organ",
      148
    ],
    [
      "water",
      149
    ],
    [
      "million",
      150
    ],
    [
      "peopl",
      151
    ],
    [
      "worldwid",
      152
    ],
    [
      "economist",
      153
    ],
    [
      "predict",
      154
    ],
    [
      "steadi",
      155
    ],
    [
      "growth",
      156
    ],
    [
      "job",
      157
    ],
    [
      "market",
      158
    ],
    [
      "quarter",
      159
    ],
    [
      "univers",
      160
    ],
    [
      "tuition",
      161
    ],
    [
      "freez",
      162
    ],
    [
      "upcom",
      163
    ],
    [
      "academ",
      164
    ],
    [
      "nasa",
      165
    ],
    [
      "launch",
      166
    ],
    [
      "climat",
      167
    ],
    [
      "chang",
      168
    ],
    [
      "secretli",
      169
    ],
    [
      "control",
      170
    ],
    [
      "weather",
      171
    ],
    [
      "startup",
      172
    ],
    [
      "app",
      173
    ],
    [
      "help",
      174
    ],
    [
      "elderli",
      175
    ],
    [
      "connect",
      176
    ],
    [
      "find",
      177
    ],
    [
      "mar",
      178
    ],
    [
      "space",
      179
    ],
    [
      "agenc",
      180
    ],
    [
      "confirm",
      181
    ],
    [
      "stare",
      182
    ],
    [
      "sun",
      183
    ],
    [
      "improv",
      184
    ],
    [
      "vision",
      185
    ],
    [
      "expert",
      186
    ],
    [
      "sai",
      187
    ],
    [
      "no",
      188
    ],
    [
      "benefit",
      189
    ],
    [
      "mediterranean",
      190
    ],
    [
      "diet",
      191
    ],
    [
      "heart",
      192
    ],
    [
      "portal",
      193
    ],
    [
      "open",
      194
    ],
    [
      "switzerland",
      195
    ],
    [
      "tourist",
      196
    ],
    [
      "visit",
      197
    ],
    [
      "dinosaur",
      198
    ],
    [
      "smoke",
      199
    ],
    [
      "cigarett",
      200
    ],
    [
      "better",
      201
    ],
    [
      "lung",
      202
    ],
    [
      "function",
      203
    ],
    [
      "busi",
      204
    ],
    [
      "win",
      205
    ],
    [
      "award",
      206
    ],
    [
      "outstand",
      207
    ],
    [
      "servic",
      208
    ],
    [
      "harm",
      209
    ],
    [
      "mysteri",
      210
    ],
    [
      "potion",
      211
    ],
    [
      "grant",
      212
    ],
    [
      "etern",
      213
    ],
    [
      "life",
      214
    ],
    [
      "sold",
      215
    ],
    [
      "onlin",
      216
    ],
    [
      "ancient",
      217
    ],
    [
      "curs",
      218
    ],
    [
      "egyptian",
      219
    ],
    [
      "tomb",
      220
    ],
    [
      "archaeologist",
      221
    ],
    [
      "disappear",
      222
    ],
    [
      "ai",
      223
    ],
    [
      "detect",
      224
    ],
    [
      "earli",
      225
    ],
    [
      "sign",
      226
    ],
    [
      "spot",
      227
    ],
    [
      "fly",
      228
    ],
    [
      "without",
      229
    ],
    [
      "airplan",
      230
    ],
    [
      "wing",
      231
    ],
    [
      "wit",
      232
    ],
    [
      "mermaid",
      233
    ],
    [
      "caught",
      234
    ],
    [
      "fishermen",
      235
    ],
    [
      "baffl",
      236
    ],
    [
      "us",
      237
    ],
    [
      "tower",
      238
    ],
    [
      "popul",
      239
    ],
    [
      "thought",
      240
    ]
  ],
  "weights": [
    -0.9187254689147546,
    -0.5119025513704024,
    -0.6319215161318787,
    -0.23297250593804214,
    0.5218130440495548,
    -0.0301312617873637,
    -0.5119025513704024,
    -0.09631396283028378,
    -0.8592779518322988,
    0.5906888293814886,
    0.30430966722928604,
    1.0760182049953921,
    0.30430966722928604,
    0.30430966722928604,
    0.30430966722928604,
    0.30430966722928604,
    0.772124323242397,
    0.34223534439065517,
    0.20315097207320562,
    0.5321817878536123,
    0.20315097207320562,
    0.7247428539694872,
    0.20315097207320562,
    -0.3388693775637674,
    -0.3388693775637674,
    -0.3388693775637674,
    -0.3388693775637674,
    -0.3388693775637674,
    -0.3388693775637674,
    -0.6063265095500581,
    -0.3025437009587355,
    0.36091003453215714,
    0.36091003453215714,
    0.36091003453215714,
    0.36091003453215714,
    0.36091003453215714,
    0.36091003453215714,
    -0.3588483139079665,
    -0.3588483139079665,
    -0.3588483139079665,
    -0.213479475151913,
    0.0024775061004779384,
    0.85938021419511,
    0.5787841000169195,
    0.2519368217271754,
    0.5809676375075823,
    0.2519368217271754,
    0.2519368217271754,
    0.538315983879378,
    0.2519368217271754,
    -0.31062801577541355,
    -0.31062801577541355,
    -0.31062801577541355,
    -0.31062801577541355,
    -0.31062801577541355,
    -0.31062801577541355,
    -0.31062801577541355,
    -0.31062801577541355,
    -0.31062801577541355,
    -0.5080371455011092,
    -0.25779739056360357,
    -0.25779739056360357,
    -0.25779739056360357,
    -0.25779739056360357,
    -0.25779739056360357,
    -1.416794568544611,
    -0.25779739056360357,
    0.2839896292376776,
    0.8936537909327046,
    0.6346540546356423,
    0.731612553882239,
    0.2839896292376776,
    0.2839896292376776,
    0.4074243813512283,
    0.7156347579651998,
    0.4074243813512283,
    0.4074243813512283,
    0.4074243813512283,
    -1.0768481080542747,
    -0.5146200882152282,
    -0.5146200882152282,
    0.006971793681053976,
    -0.5183205797633671,
    -0.3827434833243458,
    -0.3827434833243458,
    -0.3827434833243458,
    -0.3827434833243458,
    0.30821037661397277,
    0.6588748020119385,
    0.30821037661397277,
    0.30821037661397277,
    0.30821037661397277,
    0.6304236858629991,
    0.280596114178191,
    0.280596114178191,
    0.280596114178191,
    0.6312605395761557,
    0.280596114178191,
    0.280596114178191,
    0.33769973049352536,
    0.6599130397425511,
    0.33769973049352536,
    0.33769973049352536,
    0.33769973049352536,
    0.33769973049352536,
    0.33769973049352536,
    -0.7284042068381075,
    -0.6979555828390432,
    -0.36592952589012134,
    -0.36592952589012134,
    -0.36592952589012134,
    -0.36592952589012134,
    0.35066442539796505,
    0.35066442539796505,
    -0.05615849214638538,
    -0.25023975493750494,
    -0.25023975493750494,
    -0.25023975493750494,
    -0.25023975493750494,
    -0.25023975493750494,
    -0.2916942907080653,
    -0.6906433009019034,
    -0.2916942907080653,
    -0.2916942907080653,
    -0.4068229175443502,
    -0.4068229175443502,
    -0.4068229175443502,
    -0.4068229175443502,
    0.8173116928557752,
    0.6096641616950289,
    0.6096641616950289,
    0.8079710440484849,
    0.5215918818962821,
    0.5215918818962821,
    -0.31873888860492255,
    -0.31873888860492255,
    -0.31873888860492255,
    -0.31873888860492255,
    -0.31873888860492255,
    -0.31873888860492255,
    -0.18295563976676515,
    -0.31873888860492255,
    -0.31873888860492255,
    -0.33840618697124814,
    -0.33840618697124814,
    -0.33840618697124814,
    -0.33840618697124814,
    0.3290308157804071,
    0.3290308157804071,
    0.2914076255950143,
    0.3290308157804071,
    0.3290308157804071,
    0.3290308157804071,
    0.39738438196854076,
    0.39738438196854076,
    0.39738438196854076,
    0.39738438196854076,
    0.39738438196854076,
    0.39738438196854076,
    0.39738438196854076,
    0.529860840409772,
    0.32221330924902664,
    0.32221330924902664,
    0.32221330924902664,
    0.32221330924902664,
    0.4476229246445618,
    0.4476229246445618,
    0.4476229246445618,
    0.4476229246445618,
    -0.3022540858885083,
    -0.5703512360722557,
    -0.3022540858885083,
    0.2863791621522033,
    0.2863791621522033,
    0.2863791621522033,
    0.2863791621522033,
    0.2863791621522033,
    0.3613258200084444,
    0.3613258200084444,
    0.3613258200084444,
    0.3613258200084444,
    0.3613258200084444,
    -0.2705337291309799,
    -0.2705337291309799,
    -0.2705337291309799,
    -0.2705337291309799,
    -0.2705337291309799,
    -0.2705337291309799,
    -0.2705337291309799,
    0.47418943580940526,
    0.47418943580940526,
    0.47418943580940526,
    0.47418943580940526,
    -0.332026056948922,
    -0.332026056948922,
    -0.332026056948922,
    -0.332026056948922,
    -0.332026056948922,
    -0.332026056948922,
    -0.27893004543235994,
    -0.27893004543235994,
    -0.27893004543235994,
    -0.27893004543235994,
    -0.27893004543235994,
    0.32684727828974347,
    0.32684727828974347,
    0.32684727828974347,
    0.32684727828974347,
    0.32684727828974347,
    -0.39894901019383733,
    -0.3623777079080178,
    -0.3623777079080178,
    -0.3623777079080178,
    -0.3623777079080178,
    -0.3623777079080178,
    -0.3623777079080178,
    -0.3623777079080178,
    -0.34629224794021274,
    -0.34629224794021274,
    -0.34629224794021274,
    -0.34629224794021274,
    -0.34629224794021274,
    -0.34629224794021274,
    0.20764753116074544,
    0.20764753116074544,
    0.20764753116074544,
    0.20764753116074544,
    -0.26745713198629023,
    -0.26745713198629023,
    -0.26745713198629023,
    -0.26745713198629023,
    -0.26745713198629023,
    -0.26745713198629023,
    -0.36247468094798774,
    -0.36247468094798774,
    -0.36247468094798774,
    -0.36247468094798774,
    -0.26809715018374797,
    -0.26809715018374797,
    -0.26809715018374797,
    -0.26809715018374797
  ],
  "bias": -0.18491373101667277,
  "modelType": "LogisticRegression",
  "metadata": {
    "vocabularySize": 241,
    "modelType": "Logistic Regression",
    "timestamp": "2026-01-16T14:29:42.059Z"
  }
}